Language model created by QuickLM on Tue Feb  9 11:20:31 EST 2016
Copyright (c) 1996-2010 Carnegie Mellon University and Alexander I. Rudnicky

The model is in standard ARPA format, designed by Doug Paul while he was at MITRE.

The code that was used to produce this language model is available in Open Source.
Please visit http://www.speech.cs.cmu.edu/tools/ for more information

The (fixed) discount mass is 0.5. The backoffs are computed using the ratio method.
This model based on a corpus of 16 sentences and 21 words

\data\
ngram 1=21
ngram 2=35
ngram 3=34

\1-grams:
-0.9420 </s> -0.3010
-0.9420 <s> -0.2483
-2.1461 BACK -0.2483
-0.9420 DASA -0.2483
-2.1461 DOWN -0.2483
-2.1461 FORWARD -0.2483
-2.1461 HIGHER -0.2483
-2.1461 JET -0.2483
-2.1461 LEFT -0.2483
-2.1461 LOWER -0.2483
-2.1461 MASSAGE -0.2483
-1.5441 MODE -0.2884
-2.1461 OFF -0.2483
-2.1461 ON -0.2483
-2.1461 RAIN -0.2483
-2.1461 RESET -0.2483
-2.1461 RIGHT -0.2483
-2.1461 SHOWER -0.2483
-2.1461 STOP -0.2483
-1.8451 TEMPERATURE -0.2948
-2.1461 UP -0.2483

\2-grams:
-0.3010 <s> DASA 0.0000
-0.3010 BACK </s> -0.3010
-1.5051 DASA BACK 0.0000
-1.5051 DASA DOWN 0.0000
-1.5051 DASA FORWARD 0.0000
-1.5051 DASA LEFT 0.0000
-0.9031 DASA MODE 0.0000
-1.5051 DASA OFF 0.0000
-1.5051 DASA ON 0.0000
-1.5051 DASA RESET 0.0000
-1.5051 DASA RIGHT 0.0000
-1.5051 DASA STOP 0.0000
-1.2041 DASA TEMPERATURE 0.0000
-1.5051 DASA UP 0.0000
-0.3010 DOWN </s> -0.3010
-0.3010 FORWARD </s> -0.3010
-0.3010 HIGHER </s> -0.3010
-0.3010 JET </s> -0.3010
-0.3010 LEFT </s> -0.3010
-0.3010 LOWER </s> -0.3010
-0.3010 MASSAGE </s> -0.3010
-0.9031 MODE JET 0.0000
-0.9031 MODE MASSAGE 0.0000
-0.9031 MODE RAIN 0.0000
-0.9031 MODE SHOWER 0.0000
-0.3010 OFF </s> -0.3010
-0.3010 ON </s> -0.3010
-0.3010 RAIN </s> -0.3010
-0.3010 RESET </s> -0.3010
-0.3010 RIGHT </s> -0.3010
-0.3010 SHOWER </s> -0.3010
-0.3010 STOP </s> -0.3010
-0.6021 TEMPERATURE HIGHER 0.0000
-0.6021 TEMPERATURE LOWER 0.0000
-0.3010 UP </s> -0.3010

\3-grams:
-1.5051 <s> DASA BACK
-1.5051 <s> DASA DOWN
-1.5051 <s> DASA FORWARD
-1.5051 <s> DASA LEFT
-0.9031 <s> DASA MODE
-1.5051 <s> DASA OFF
-1.5051 <s> DASA ON
-1.5051 <s> DASA RESET
-1.5051 <s> DASA RIGHT
-1.5051 <s> DASA STOP
-1.2041 <s> DASA TEMPERATURE
-1.5051 <s> DASA UP
-0.3010 DASA BACK </s>
-0.3010 DASA DOWN </s>
-0.3010 DASA FORWARD </s>
-0.3010 DASA LEFT </s>
-0.9031 DASA MODE JET
-0.9031 DASA MODE MASSAGE
-0.9031 DASA MODE RAIN
-0.9031 DASA MODE SHOWER
-0.3010 DASA OFF </s>
-0.3010 DASA ON </s>
-0.3010 DASA RESET </s>
-0.3010 DASA RIGHT </s>
-0.3010 DASA STOP </s>
-0.6021 DASA TEMPERATURE HIGHER
-0.6021 DASA TEMPERATURE LOWER
-0.3010 DASA UP </s>
-0.3010 MODE JET </s>
-0.3010 MODE MASSAGE </s>
-0.3010 MODE RAIN </s>
-0.3010 MODE SHOWER </s>
-0.3010 TEMPERATURE HIGHER </s>
-0.3010 TEMPERATURE LOWER </s>

\end\
